<?xml version="1.0"?>
<opencv_storage>
<cascade>
  <stageType>BOOST</stageType>
  <featureType>HAAR</featureType>
  <height>24</height>
  <width>24</width>
  <stageParams>
    <boostType>GAB</boostType>
    <minHitRate>9.9900001287460327e-01</minHitRate>
    <maxFalseAlarm>4.0000000596046448e-01</maxFalseAlarm>
    <weightTrimRate>9.4999999999999996e-01</weightTrimRate>
    <maxDepth>1</maxDepth>
    <maxWeakCount>100</maxWeakCount></stageParams>
  <featureParams>
    <maxCatCount>0</maxCatCount>
    <featSize>1</featSize>
    <mode>BASIC</mode></featureParams>
  <stageNum>12</stageNum>
  <stages>
    <!-- stage 0 -->
    <_>
      <maxWeakCount>5</maxWeakCount>
      <stageThreshold>-3.5328871011734009e-01</stageThreshold>
      <weakClassifiers>
        <_>
          <internalNodes>
            0 -1 8 -1.3361278921365738e-02</internalNodes>
          <leafValues>
            6.1904764175415039e-01 -5.9090906381607056e-01</leafValues></_>
        <_>
          <internalNodes>
            0 -1 32 -4.5231322292238474e-04</internalNodes>
          <leafValues>
            6.2800830602645874e-01 -5.6481575965881348e-01</leafValues></_>
        <_>
          <internalNodes>
            0 -1 27 -1.7812781152315438e-04</internalNodes>
          <leafValues>
            8.8850235939025879e-01 -4.0897348523139954e-01</leafValues></_>
        <_>
          <internalNodes>
            0 -1 34 6.3547915779054165e-03</internalNodes>
          <leafValues>
            -4.7713834047317505e-01 9.3362194299697876e-01</leafValues></_>
        <_>
          <internalNodes>
            0 -1 41 -4.2164353653788567e-03</internalNodes>
          <leafValues>
            4.9572390317916870e-01 -1.</leafValues></_></weakClassifiers></_>
    <!-- stage 1 -->
    <_>
      <maxWeakCount>3</maxWeakCount>
      <stageThreshold>-2.2292385995388031e-01</stageThreshold>
      <weakClassifiers>
        <_>
          <internalNodes>
            0 -1 20 -2.9712719842791557e-03</internalNodes>
          <leafValues>
            5.4347825050354004e-01 -6.2500000000000000e-01</leafValues></_>
        <_>
          <internalNodes>
            0 -1 12 -2.3598578991368413e-04</internalNodes>
          <leafValues>
            8.1660425662994385e-01 -4.2596256732940674e-01</leafValues></_>
        <_>
          <internalNodes>
            0 -1 19 7.0152600528672338e-04</internalNodes>
          <leafValues>
            -3.4043955802917480e-01 9.2172318696975708e-01</leafValues></_></weakClassifiers></_>
    <!-- stage 2 -->
    <_>
      <maxWeakCount>5</maxWeakCount>
      <stageThreshold>-1.0606858879327774e-01</stageThreshold>
      <weakClassifiers>
        <_>
          <internalNodes>
            0 -1 47 8.8647650554776192e-03</internalNodes>
          <leafValues>
            -5.5319148302078247e-01 6.6666668653488159e-01</leafValues></_>
        <_>
          <internalNodes>
            0 -1 2 -2.0423512160778046e-01</internalNodes>
          <leafValues>
            1. -3.1118026375770569e-01</leafValues></_>
        <_>
          <internalNodes>
            0 -1 5 -2.1188331302255392e-03</internalNodes>
          <leafValues>
            -5.2039402723312378e-01 9.5875084400177002e-01</leafValues></_>
        <_>
          <internalNodes>
            0 -1 28 -2.4113403633236885e-02</internalNodes>
          <leafValues>
            5.4265844821929932e-01 -8.4854418039321899e-01</leafValues></_>
        <_>
          <internalNodes>
            0 -1 9 -4.5287571847438812e-03</internalNodes>
          <leafValues>
            7.3603874444961548e-01 -5.0116020441055298e-01</leafValues></_></weakClassifiers></_>
    <!-- stage 3 -->
    <_>
      <maxWeakCount>5</maxWeakCount>
      <stageThreshold>-1.2931540608406067e-01</stageThreshold>
      <weakClassifiers>
        <_>
          <internalNodes>
            0 -1 51 -1.1913847993128002e-04</internalNodes>
          <leafValues>
            6.2962961196899414e-01 -5.6043958663940430e-01</leafValues></_>
        <_>
          <internalNodes>
            0 -1 39 1.4573829248547554e-03</internalNodes>
          <leafValues>
            -4.1138708591461182e-01 7.2236263751983643e-01</leafValues></_>
        <_>
          <internalNodes>
            0 -1 38 5.2048377692699432e-02</internalNodes>
          <leafValues>
            -4.4467309117317200e-01 9.6219050884246826e-01</leafValues></_>
        <_>
          <internalNodes>
            0 -1 1 -2.1671128924936056e-03</internalNodes>
          <leafValues>
            -7.7806472778320312e-01 5.6594175100326538e-01</leafValues></_>
        <_>
          <internalNodes>
            0 -1 25 -4.6412012306973338e-04</internalNodes>
          <leafValues>
            8.7461161613464355e-01 -4.1250717639923096e-01</leafValues></_></weakClassifiers></_>
    <!-- stage 4 -->
    <_>
      <maxWeakCount>4</maxWeakCount>
      <stageThreshold>-6.4543026685714722e-01</stageThreshold>
      <weakClassifiers>
        <_>
          <internalNodes>
            0 -1 3 3.4867133945226669e-03</internalNodes>
          <leafValues>
            3.2800000905990601e-01 -8.7234044075012207e-01</leafValues></_>
        <_>
          <internalNodes>
            0 -1 0 -2.4763867259025574e-01</internalNodes>
          <leafValues>
            -3.9428466558456421e-01 9.7559207677841187e-01</leafValues></_>
        <_>
          <internalNodes>
            0 -1 33 2.6770066469907761e-02</internalNodes>
          <leafValues>
            -4.7153300046920776e-01 8.9491730928421021e-01</leafValues></_>
        <_>
          <internalNodes>
            0 -1 11 -2.6563469320535660e-02</internalNodes>
          <leafValues>
            8.9506399631500244e-01 -2.7714893221855164e-01</leafValues></_></weakClassifiers></_>
    <!-- stage 5 -->
    <_>
      <maxWeakCount>5</maxWeakCount>
      <stageThreshold>-1.9017969071865082e-01</stageThreshold>
      <weakClassifiers>
        <_>
          <internalNodes>
            0 -1 30 -1.3511543162167072e-02</internalNodes>
          <leafValues>
            4.1818180680274963e-01 -7.4193549156188965e-01</leafValues></_>
        <_>
          <internalNodes>
            0 -1 14 2.7076347032561898e-04</internalNodes>
          <leafValues>
            -4.3354162573814392e-01 7.9029697179794312e-01</leafValues></_>
        <_>
          <internalNodes>
            0 -1 36 -2.0604608580470085e-03</internalNodes>
          <leafValues>
            6.7878431081771851e-01 -4.8425117135047913e-01</leafValues></_>
        <_>
          <internalNodes>
            0 -1 55 -2.7775461785495281e-04</internalNodes>
          <leafValues>
            6.2654572725296021e-01 -5.3250634670257568e-01</leafValues></_>
        <_>
          <internalNodes>
            0 -1 15 1.6939286142587662e-03</internalNodes>
          <leafValues>
            -3.1711447238922119e-01 8.6166709661483765e-01</leafValues></_></weakClassifiers></_>
    <!-- stage 6 -->
    <_>
      <maxWeakCount>2</maxWeakCount>
      <stageThreshold>-8.4171980619430542e-02</stageThreshold>
      <weakClassifiers>
        <_>
          <internalNodes>
            0 -1 35 -2.4606637656688690e-02</internalNodes>
          <leafValues>
            5.1851850748062134e-01 -8.7500000000000000e-01</leafValues></_>
        <_>
          <internalNodes>
            0 -1 4 9.4209145754575729e-04</internalNodes>
          <leafValues>
            -4.8062059283256531e-01 7.9082798957824707e-01</leafValues></_></weakClassifiers></_>
    <!-- stage 7 -->
    <_>
      <maxWeakCount>6</maxWeakCount>
      <stageThreshold>3.8763776421546936e-02</stageThreshold>
      <weakClassifiers>
        <_>
          <internalNodes>
            0 -1 26 -6.0752548277378082e-02</internalNodes>
          <leafValues>
            4.6428570151329041e-01 -8.6666667461395264e-01</leafValues></_>
        <_>
          <internalNodes>
            0 -1 54 3.8710224907845259e-04</internalNodes>
          <leafValues>
            -5.3684908151626587e-01 7.1063214540481567e-01</leafValues></_>
        <_>
          <internalNodes>
            0 -1 53 -8.3019584417343140e-04</internalNodes>
          <leafValues>
            7.5599437952041626e-01 -4.3172761797904968e-01</leafValues></_>
        <_>
          <internalNodes>
            0 -1 50 8.6002057651057839e-04</internalNodes>
          <leafValues>
            -4.3333896994590759e-01 7.0733165740966797e-01</leafValues></_>
        <_>
          <internalNodes>
            0 -1 23 -1.1482922732830048e-01</internalNodes>
          <leafValues>
            4.6006843447685242e-01 -7.7106153964996338e-01</leafValues></_>
        <_>
          <internalNodes>
            0 -1 45 -3.7116154999239370e-05</internalNodes>
          <leafValues>
            6.9025576114654541e-01 -5.2706390619277954e-01</leafValues></_></weakClassifiers></_>
    <!-- stage 8 -->
    <_>
      <maxWeakCount>5</maxWeakCount>
      <stageThreshold>-4.0969866514205933e-01</stageThreshold>
      <weakClassifiers>
        <_>
          <internalNodes>
            0 -1 37 -3.2742368057370186e-03</internalNodes>
          <leafValues>
            3.1250000000000000e-01 -9.0909093618392944e-01</leafValues></_>
        <_>
          <internalNodes>
            0 -1 21 5.8376394212245941e-02</internalNodes>
          <leafValues>
            -3.6265155673027039e-01 9.1558015346527100e-01</leafValues></_>
        <_>
          <internalNodes>
            0 -1 17 9.8660835647024214e-05</internalNodes>
          <leafValues>
            -4.0274396538734436e-01 7.7554380893707275e-01</leafValues></_>
        <_>
          <internalNodes>
            0 -1 10 -8.7484400719404221e-03</internalNodes>
          <leafValues>
            7.0931112766265869e-01 -3.5094392299652100e-01</leafValues></_>
        <_>
          <internalNodes>
            0 -1 43 -2.4837288074195385e-03</internalNodes>
          <leafValues>
            3.9414075016975403e-01 -9.7211223840713501e-01</leafValues></_></weakClassifiers></_>
    <!-- stage 9 -->
    <_>
      <maxWeakCount>6</maxWeakCount>
      <stageThreshold>-4.0188658237457275e-01</stageThreshold>
      <weakClassifiers>
        <_>
          <internalNodes>
            0 -1 48 -4.4064526446163654e-03</internalNodes>
          <leafValues>
            6.2500000000000000e-01 -5.4347825050354004e-01</leafValues></_>
        <_>
          <internalNodes>
            0 -1 13 -4.9062717152992263e-05</internalNodes>
          <leafValues>
            6.6831201314926147e-01 -3.9013600349426270e-01</leafValues></_>
        <_>
          <internalNodes>
            0 -1 29 2.2733861987944692e-04</internalNodes>
          <leafValues>
            -4.8747539520263672e-01 6.0972625017166138e-01</leafValues></_>
        <_>
          <internalNodes>
            0 -1 40 -1.0024779476225376e-03</internalNodes>
          <leafValues>
            8.2469803094863892e-01 -3.6921203136444092e-01</leafValues></_>
        <_>
          <internalNodes>
            0 -1 46 -3.8605509325861931e-03</internalNodes>
          <leafValues>
            8.6529290676116943e-01 -2.4429847300052643e-01</leafValues></_>
        <_>
          <internalNodes>
            0 -1 24 -3.4333806979702786e-05</internalNodes>
          <leafValues>
            5.7426553964614868e-01 -5.1067876815795898e-01</leafValues></_></weakClassifiers></_>
    <!-- stage 10 -->
    <_>
      <maxWeakCount>6</maxWeakCount>
      <stageThreshold>-6.7361913621425629e-02</stageThreshold>
      <weakClassifiers>
        <_>
          <internalNodes>
            0 -1 42 5.7159748394042253e-04</internalNodes>
          <leafValues>
            -3.6283186078071594e-01 6.9491523504257202e-01</leafValues></_>
        <_>
          <internalNodes>
            0 -1 16 4.5882981794420630e-05</internalNodes>
          <leafValues>
            -3.7057951092720032e-01 6.8276041746139526e-01</leafValues></_>
        <_>
          <internalNodes>
            0 -1 52 -1.9211419858038425e-03</internalNodes>
          <leafValues>
            7.1029877662658691e-01 -3.8955944776535034e-01</leafValues></_>
        <_>
          <internalNodes>
            0 -1 44 2.3176071408670396e-04</internalNodes>
          <leafValues>
            -3.9388984441757202e-01 8.7110590934753418e-01</leafValues></_>
        <_>
          <internalNodes>
            0 -1 31 1.2468236673157662e-04</internalNodes>
          <leafValues>
            -2.9611474275588989e-01 8.2213872671127319e-01</leafValues></_>
        <_>
          <internalNodes>
            0 -1 49 -1.1382401862647384e-04</internalNodes>
          <leafValues>
            7.0029509067535400e-01 -3.6547353863716125e-01</leafValues></_></weakClassifiers></_>
    <!-- stage 11 -->
    <_>
      <maxWeakCount>5</maxWeakCount>
      <stageThreshold>-1.3658399879932404e-01</stageThreshold>
      <weakClassifiers>
        <_>
          <internalNodes>
            0 -1 6 -2.5696593802422285e-03</internalNodes>
          <leafValues>
            -6.6666668653488159e-01 4.1509434580802917e-01</leafValues></_>
        <_>
          <internalNodes>
            0 -1 7 -2.3754072189331055e-01</internalNodes>
          <leafValues>
            9.1792303323745728e-01 -3.4896975755691528e-01</leafValues></_>
        <_>
          <internalNodes>
            0 -1 56 -1.0938447667285800e-03</internalNodes>
          <leafValues>
            -3.0041921138763428e-01 8.2174831628799438e-01</leafValues></_>
        <_>
          <internalNodes>
            0 -1 22 -4.5126192271709442e-03</internalNodes>
          <leafValues>
            8.3630216121673584e-01 -3.5201248526573181e-01</leafValues></_>
        <_>
          <internalNodes>
            0 -1 18 -6.4732846803963184e-03</internalNodes>
          <leafValues>
            4.5393344759941101e-01 -6.7244440317153931e-01</leafValues></_></weakClassifiers></_></stages>
  <features>
    <_>
      <rects>
        <_>
          0 0 24 24 -1.</_>
        <_>
          8 0 8 24 2.</_></rects>
      <tilted>0</tilted></_>
    <_>
      <rects>
        <_>
          0 1 2 18 -1.</_>
        <_>
          0 10 2 9 2.</_></rects>
      <tilted>0</tilted></_>
    <_>
      <rects>
        <_>
          0 2 14 18 -1.</_>
        <_>
          7 2 7 18 2.</_></rects>
      <tilted>0</tilted></_>
    <_>
      <rects>
        <_>
          0 3 1 16 -1.</_>
        <_>
          0 11 1 8 2.</_></rects>
      <tilted>0</tilted></_>
    <_>
      <rects>
        <_>
          0 4 20 2 -1.</_>
        <_>
          0 5 20 1 2.</_></rects>
      <tilted>0</tilted></_>
    <_>
      <rects>
        <_>
          0 6 1 9 -1.</_>
        <_>
          0 9 1 3 2.</_></rects>
      <tilted>0</tilted></_>
    <_>
      <rects>
        <_>
          0 6 1 18 -1.</_>
        <_>
          0 15 1 9 2.</_></rects>
      <tilted>0</tilted></_>
    <_>
      <rects>
        <_>
          0 6 14 17 -1.</_>
        <_>
          7 6 7 17 2.</_></rects>
      <tilted>0</tilted></_>
    <_>
      <rects>
        <_>
          0 10 12 14 -1.</_>
        <_>
          0 10 6 7 2.</_>
        <_>
          6 17 6 7 2.</_></rects>
      <tilted>0</tilted></_>
    <_>
      <rects>
        <_>
          0 13 12 4 -1.</_>
        <_>
          0 13 6 2 2.</_>
        <_>
          6 15 6 2 2.</_></rects>
      <tilted>0</tilted></_>
    <_>
      <rects>
        <_>
          0 16 12 6 -1.</_>
        <_>
          0 16 6 3 2.</_>
        <_>
          6 19 6 3 2.</_></rects>
      <tilted>0</tilted></_>
    <_>
      <rects>
        <_>
          2 4 14 4 -1.</_>
        <_>
          9 4 7 4 2.</_></rects>
      <tilted>0</tilted></_>
    <_>
      <rects>
        <_>
          3 10 8 2 -1.</_>
        <_>
          3 10 4 1 2.</_>
        <_>
          7 11 4 1 2.</_></rects>
      <tilted>0</tilted></_>
    <_>
      <rects>
        <_>
          3 13 4 2 -1.</_>
        <_>
          3 14 4 1 2.</_></rects>
      <tilted>0</tilted></_>
    <_>
      <rects>
        <_>
          4 7 14 2 -1.</_>
        <_>
          4 7 7 1 2.</_>
        <_>
          11 8 7 1 2.</_></rects>
      <tilted>0</tilted></_>
    <_>
      <rects>
        <_>
          4 20 4 4 -1.</_>
        <_>
          4 22 4 2 2.</_></rects>
      <tilted>0</tilted></_>
    <_>
      <rects>
        <_>
          4 21 2 2 -1.</_>
        <_>
          4 22 2 1 2.</_></rects>
      <tilted>0</tilted></_>
    <_>
      <rects>
        <_>
          5 9 2 1 -1.</_>
        <_>
          6 9 1 1 2.</_></rects>
      <tilted>0</tilted></_>
    <_>
      <rects>
        <_>
          6 11 18 10 -1.</_>
        <_>
          6 16 18 5 2.</_></rects>
      <tilted>0</tilted></_>
    <_>
      <rects>
        <_>
          6 12 4 1 -1.</_>
        <_>
          8 12 2 1 2.</_></rects>
      <tilted>0</tilted></_>
    <_>
      <rects>
        <_>
          6 14 5 8 -1.</_>
        <_>
          6 18 5 4 2.</_></rects>
      <tilted>0</tilted></_>
    <_>
      <rects>
        <_>
          7 0 16 17 -1.</_>
        <_>
          15 0 8 17 2.</_></rects>
      <tilted>0</tilted></_>
    <_>
      <rects>
        <_>
          7 1 5 8 -1.</_>
        <_>
          7 5 5 4 2.</_></rects>
      <tilted>0</tilted></_>
    <_>
      <rects>
        <_>
          7 3 6 19 -1.</_>
        <_>
          9 3 2 19 2.</_></rects>
      <tilted>0</tilted></_>
    <_>
      <rects>
        <_>
          7 18 1 2 -1.</_>
        <_>
          7 19 1 1 2.</_></rects>
      <tilted>0</tilted></_>
    <_>
      <rects>
        <_>
          7 23 8 1 -1.</_>
        <_>
          11 23 4 1 2.</_></rects>
      <tilted>0</tilted></_>
    <_>
      <rects>
        <_>
          8 9 6 8 -1.</_>
        <_>
          10 9 2 8 2.</_></rects>
      <tilted>0</tilted></_>
    <_>
      <rects>
        <_>
          9 6 2 2 -1.</_>
        <_>
          10 6 1 2 2.</_></rects>
      <tilted>0</tilted></_>
    <_>
      <rects>
        <_>
          9 15 7 3 -1.</_>
        <_>
          9 16 7 1 2.</_></rects>
      <tilted>0</tilted></_>
    <_>
      <rects>
        <_>
          9 18 4 4 -1.</_>
        <_>
          11 18 2 4 2.</_></rects>
      <tilted>0</tilted></_>
    <_>
      <rects>
        <_>
          10 7 3 3 -1.</_>
        <_>
          11 7 1 3 2.</_></rects>
      <tilted>0</tilted></_>
    <_>
      <rects>
        <_>
          10 9 1 2 -1.</_>
        <_>
          10 10 1 1 2.</_></rects>
      <tilted>0</tilted></_>
    <_>
      <rects>
        <_>
          10 14 9 2 -1.</_>
        <_>
          10 15 9 1 2.</_></rects>
      <tilted>0</tilted></_>
    <_>
      <rects>
        <_>
          10 20 14 3 -1.</_>
        <_>
          17 20 7 3 2.</_></rects>
      <tilted>0</tilted></_>
    <_>
      <rects>
        <_>
          11 3 5 6 -1.</_>
        <_>
          11 6 5 3 2.</_></rects>
      <tilted>0</tilted></_>
    <_>
      <rects>
        <_>
          11 5 3 6 -1.</_>
        <_>
          12 5 1 6 2.</_></rects>
      <tilted>0</tilted></_>
    <_>
      <rects>
        <_>
          11 9 8 4 -1.</_>
        <_>
          15 9 4 4 2.</_></rects>
      <tilted>0</tilted></_>
    <_>
      <rects>
        <_>
          11 14 1 3 -1.</_>
        <_>
          11 15 1 1 2.</_></rects>
      <tilted>0</tilted></_>
    <_>
      <rects>
        <_>
          12 1 12 14 -1.</_>
        <_>
          18 1 6 14 2.</_></rects>
      <tilted>0</tilted></_>
    <_>
      <rects>
        <_>
          12 1 10 6 -1.</_>
        <_>
          12 4 10 3 2.</_></rects>
      <tilted>0</tilted></_>
    <_>
      <rects>
        <_>
          12 10 8 2 -1.</_>
        <_>
          12 10 4 1 2.</_>
        <_>
          16 11 4 1 2.</_></rects>
      <tilted>0</tilted></_>
    <_>
      <rects>
        <_>
          12 17 1 6 -1.</_>
        <_>
          12 19 1 2 2.</_></rects>
      <tilted>0</tilted></_>
    <_>
      <rects>
        <_>
          13 6 2 2 -1.</_>
        <_>
          13 7 2 1 2.</_></rects>
      <tilted>0</tilted></_>
    <_>
      <rects>
        <_>
          13 17 1 3 -1.</_>
        <_>
          13 18 1 1 2.</_></rects>
      <tilted>0</tilted></_>
    <_>
      <rects>
        <_>
          14 2 1 2 -1.</_>
        <_>
          14 3 1 1 2.</_></rects>
      <tilted>0</tilted></_>
    <_>
      <rects>
        <_>
          14 4 8 1 -1.</_>
        <_>
          18 4 4 1 2.</_></rects>
      <tilted>0</tilted></_>
    <_>
      <rects>
        <_>
          14 4 8 4 -1.</_>
        <_>
          14 4 4 2 2.</_>
        <_>
          18 6 4 2 2.</_></rects>
      <tilted>0</tilted></_>
    <_>
      <rects>
        <_>
          14 8 10 10 -1.</_>
        <_>
          14 8 5 5 2.</_>
        <_>
          19 13 5 5 2.</_></rects>
      <tilted>0</tilted></_>
    <_>
      <rects>
        <_>
          14 9 2 8 -1.</_>
        <_>
          14 13 2 4 2.</_></rects>
      <tilted>0</tilted></_>
    <_>
      <rects>
        <_>
          14 22 4 2 -1.</_>
        <_>
          14 23 4 1 2.</_></rects>
      <tilted>0</tilted></_>
    <_>
      <rects>
        <_>
          15 7 1 4 -1.</_>
        <_>
          15 9 1 2 2.</_></rects>
      <tilted>0</tilted></_>
    <_>
      <rects>
        <_>
          15 12 1 4 -1.</_>
        <_>
          15 14 1 2 2.</_></rects>
      <tilted>0</tilted></_>
    <_>
      <rects>
        <_>
          17 1 4 12 -1.</_>
        <_>
          17 7 4 6 2.</_></rects>
      <tilted>0</tilted></_>
    <_>
      <rects>
        <_>
          17 6 2 8 -1.</_>
        <_>
          17 10 2 4 2.</_></rects>
      <tilted>0</tilted></_>
    <_>
      <rects>
        <_>
          17 11 6 6 -1.</_>
        <_>
          17 11 3 3 2.</_>
        <_>
          20 14 3 3 2.</_></rects>
      <tilted>0</tilted></_>
    <_>
      <rects>
        <_>
          17 18 1 6 -1.</_>
        <_>
          17 21 1 3 2.</_></rects>
      <tilted>0</tilted></_>
    <_>
      <rects>
        <_>
          23 10 1 3 -1.</_>
        <_>
          23 11 1 1 2.</_></rects>
      <tilted>0</tilted></_></features></cascade>
</opencv_storage>
